FANN_FLO_2.1
num_layers=3
learning_rate=0.700000
connection_rate=1.000000
network_type=0
learning_momentum=0.000000
training_algorithm=2
train_error_function=1
train_stop_function=0
cascade_output_change_fraction=0.010000
quickprop_decay=-0.000100
quickprop_mu=1.750000
rprop_increase_factor=1.200000
rprop_decrease_factor=0.500000
rprop_delta_min=0.000000
rprop_delta_max=50.000000
rprop_delta_zero=0.100000
cascade_output_stagnation_epochs=12
cascade_candidate_change_fraction=0.010000
cascade_candidate_stagnation_epochs=12
cascade_max_out_epochs=150
cascade_min_out_epochs=50
cascade_max_cand_epochs=150
cascade_min_cand_epochs=50
cascade_num_candidate_groups=2
bit_fail_limit=3.49999994039535522461e-01
cascade_candidate_limit=1.00000000000000000000e+03
cascade_weight_multiplier=4.00000005960464477539e-01
cascade_activation_functions_count=10
cascade_activation_functions=3 5 7 8 10 11 14 15 16 17 
cascade_activation_steepnesses_count=4
cascade_activation_steepnesses=2.50000000000000000000e-01 5.00000000000000000000e-01 7.50000000000000000000e-01 1.00000000000000000000e+00 
layer_sizes=13 11 5 
scale_included=0
neurons (num_inputs, activation_function, activation_steepness)=(0, 0, 0.00000000000000000000e+00) (0, 0, 0.00000000000000000000e+00) (0, 0, 0.00000000000000000000e+00) (0, 0, 0.00000000000000000000e+00) (0, 0, 0.00000000000000000000e+00) (0, 0, 0.00000000000000000000e+00) (0, 0, 0.00000000000000000000e+00) (0, 0, 0.00000000000000000000e+00) (0, 0, 0.00000000000000000000e+00) (0, 0, 0.00000000000000000000e+00) (0, 0, 0.00000000000000000000e+00) (0, 0, 0.00000000000000000000e+00) (0, 0, 0.00000000000000000000e+00) (13, 3, 5.00000000000000000000e-01) (13, 3, 5.00000000000000000000e-01) (13, 3, 5.00000000000000000000e-01) (13, 3, 5.00000000000000000000e-01) (13, 3, 5.00000000000000000000e-01) (13, 3, 5.00000000000000000000e-01) (13, 3, 5.00000000000000000000e-01) (13, 3, 5.00000000000000000000e-01) (13, 3, 5.00000000000000000000e-01) (13, 3, 5.00000000000000000000e-01) (0, 3, 0.00000000000000000000e+00) (11, 3, 5.00000000000000000000e-01) (11, 3, 5.00000000000000000000e-01) (11, 3, 5.00000000000000000000e-01) (11, 3, 5.00000000000000000000e-01) (0, 3, 0.00000000000000000000e+00) 
connections (connected_to_neuron, weight)=(0, -1.09505720436573028564e-01) (1, -2.94383149594068527222e-02) (2, -8.12766402959823608398e-02) (3, -4.02216815948486328125e+00) (4, 7.18779027462005615234e-01) (5, 3.08517336845397949219e-01) (6, -4.06698107719421386719e-01) (7, -1.23962156474590301514e-01) (8, -4.50685083866119384766e-01) (9, -4.40718457102775573730e-02) (10, 4.60366569459438323975e-02) (11, -6.83468729257583618164e-02) (12, 3.76614421606063842773e-01) (0, 1.02442073822021484375e+00) (1, 1.66107797622680664062e+00) (2, 1.11328148841857910156e+00) (3, -2.48781509399414062500e+02) (4, 2.05679740905761718750e+01) (5, 6.31980001926422119141e-01) (6, 1.52404773235321044922e+00) (7, 1.96258950233459472656e+00) (8, 3.88608193397521972656e+00) (9, 1.13461816310882568359e+00) (10, 1.54022836685180664062e+00) (11, 1.49240028858184814453e+00) (12, 4.92770814895629882812e+00) (0, 2.65276193618774414062e-01) (1, -1.57883214950561523438e+01) (2, -1.51271855831146240234e+00) (3, 5.59747076034545898438e+00) (4, 8.35251312255859375000e+01) (5, 1.04049797058105468750e+01) (6, -9.49318483471870422363e-02) (7, -1.09286177158355712891e+00) (8, 7.81903123855590820312e+00) (9, 8.53333435952663421631e-03) (10, -6.38042497634887695312e+00) (11, -1.86083304882049560547e+00) (12, 3.90475336462259292603e-03) (0, -1.30383923649787902832e-01) (1, -2.35821500420570373535e-01) (2, -2.61063963174819946289e-01) (3, 1.78394770622253417969e+00) (4, -2.47881129384040832520e-01) (5, 3.61304193735122680664e-01) (6, -1.68595775961875915527e-01) (7, -4.06650364398956298828e-01) (8, -6.16746187210083007812e-01) (9, -5.58833628892898559570e-02) (10, -2.11119905114173889160e-01) (11, -2.22136318683624267578e-01) (12, 7.36053943634033203125e-01) (0, 1.65396526455879211426e-01) (1, -4.69334334135055541992e-01) (2, -1.19149677455425262451e-01) (3, 3.93222656250000000000e+01) (4, -6.81259095668792724609e-01) (5, -7.29387938976287841797e-01) (6, -1.98200345039367675781e-01) (7, -4.19923931360244750977e-01) (8, -5.25790834426879882812e+00) (9, 1.98188051581382751465e-01) (10, -5.65315544605255126953e-01) (11, -1.60464063286781311035e-01) (12, 2.75367107242345809937e-02) (0, 5.67524671554565429688e+00) (1, 1.30678186416625976562e+01) (2, 4.90873956680297851562e+00) (3, 2.46520924568176269531e+00) (4, 8.35032558441162109375e+00) (5, 3.78516101837158203125e+00) (6, 2.86977720260620117188e+00) (7, 1.82831573486328125000e+00) (8, 1.83939838409423828125e+00) (9, 5.80798339843750000000e+00) (10, 1.13440485000610351562e+01) (11, 4.98972034454345703125e+00) (12, -2.04965901374816894531e+00) (0, 9.23379063606262207031e-01) (1, 1.47917732596397399902e-01) (2, 8.99183273315429687500e-01) (3, -9.30863761901855468750e+00) (4, 6.12225770950317382812e-01) (5, -3.81942725181579589844e+00) (6, 3.36272381246089935303e-02) (7, -3.82975727319717407227e-01) (8, 1.91044256091117858887e-01) (9, 5.02748668193817138672e-01) (10, 2.35029503703117370605e-01) (11, 4.28143054246902465820e-01) (12, 2.41472184658050537109e-01) (0, 6.02187585830688476562e+00) (1, 2.15591720581054687500e+02) (2, 1.00487617492675781250e+02) (3, -5.12780876159667968750e+01) (4, 1.08090839385986328125e+01) (5, 5.37157630920410156250e+01) (6, 4.06031646728515625000e+01) (7, 1.27681396484375000000e+03) (8, 1.18313342285156250000e+03) (9, 1.80939445495605468750e+01) (10, 2.15275985717773437500e+02) (11, 2.09634231567382812500e+02) (12, 3.69278678894042968750e+01) (0, -2.22015619277954101562e-01) (1, -2.02318453788757324219e+00) (2, -5.26385605335235595703e-01) (3, 1.24802722930908203125e+01) (4, -4.16966199874877929688e+00) (5, 7.39443600177764892578e-01) (6, -3.59565436840057373047e-01) (7, -5.73334157466888427734e-01) (8, -5.41461944580078125000e-01) (9, -4.03325289487838745117e-01) (10, -2.11683535575866699219e+00) (11, -4.85356062650680541992e-01) (12, 1.07117712497711181641e-01) (0, -2.56989336013793945312e+00) (1, -2.08000206947326660156e+00) (2, -2.00090265274047851562e+00) (3, 7.24411964416503906250e-01) (4, -3.51574599742889404297e-01) (5, 1.17085862159729003906e+00) (6, 9.89021658897399902344e-02) (7, 4.11561340093612670898e-01) (8, 1.31916999816894531250e+00) (9, -2.46757030487060546875e+00) (10, -2.17984294891357421875e+00) (11, -1.03802180290222167969e+00) (12, 1.44536340236663818359e+00) (13, 5.80795240402221679688e+00) (14, -7.32795655727386474609e-01) (15, 6.94625973701477050781e-01) (16, 2.51632728576660156250e+01) (17, 1.32477247714996337891e+00) (18, -3.42438468933105468750e+01) (19, 6.06329858303070068359e-01) (20, 1.03093659877777099609e+00) (21, 3.48084373474121093750e+01) (22, 1.93772830963134765625e+01) (23, 8.38101953268051147461e-02) (13, 1.39555997848510742188e+01) (14, -1.38743951916694641113e-01) (15, -3.35622370243072509766e-01) (16, 3.75200033187866210938e+00) (17, -1.50000000000000000000e+03) (18, 1.72866401672363281250e+01) (19, 1.68555760383605957031e+00) (20, -5.71748435497283935547e-01) (21, 8.79531764984130859375e+00) (22, -4.36752510070800781250e+01) (23, -2.34848356246948242188e+00) (13, -1.90658073425292968750e+01) (14, -1.01676344871520996094e-01) (15, -2.58899749755859375000e+02) (16, -1.23768920898437500000e+02) (17, 1.21019982910156250000e+03) (18, -1.77174419164657592773e-01) (19, 1.74633617401123046875e+01) (20, -4.61804121732711791992e-01) (21, -1.50000000000000000000e+03) (22, -2.40529036521911621094e+00) (23, -7.69642114639282226562e-01) (13, -6.36781730651855468750e+01) (14, 1.63905036449432373047e+00) (15, 6.59841680526733398438e+00) (16, -2.94988006591796875000e+02) (17, -1.50000000000000000000e+03) (18, 1.95461511611938476562e+00) (19, -1.94364471435546875000e+01) (20, 1.56901395320892333984e+00) (21, 1.34144641113281250000e+03) (22, -9.76826548576354980469e-01) (23, 1.26573717594146728516e+00) 
